{
  "male": {
    "weights": [
      [
        -0.20435881068789444,
        -0.43207690893871165,
        0.43072239158019815,
        0.28803367046000383,
        -0.7753338254935738,
        1.84575475205044,
        -0.9963075502070133
      ],
      [
        0.016150090142190578,
        -0.8764356428411617,
        -0.27907365881251717,
        0.0320246665340102,
        -0.02749584817771345,
        -0.3385477654177488,
        0.9891038045763564
      ],
      [
        -0.18518981211599772,
        0.23199335956554673,
        0.571837658908038,
        0.2612581077053226,
        -0.6933317163449251,
        -1.5071882937556345,
        1.4769672414938044
      ],
      [
        -0.2822394969210022,
        1.3924650678693724,
        -2.0410194721777595,
        -0.18883901584711119,
        0.7415654088118319,
        -0.39560391924795196,
        0.38567535451866913
      ],
      [
        -0.5480447144710257,
        -0.8605930084917744,
        0.774854077436808,
        -0.04231989152280616,
        0.25336366477736005,
        1.3539337676838743,
        -1.1630514073543274
      ],
      [
        0.585827627111138,
        0.3597977918477314,
        0.1802211349632656,
        0.22380985904538497,
        -1.0415911330539467,
        -0.950486136202031,
        1.0973256249227406
      ],
      [
        1.1191126092441375,
        1.6699708594394311,
        -2.3013023361870286,
        -0.13863772504456667,
        1.613265619190433,
        -2.226817215128874,
        0.592649009192759
      ],
      [
        -0.11771033061735464,
        0.5226726431717548,
        0.5864839473166911,
        -0.05444897632738539,
        -2.0637108549351457,
        -0.21975887282086887,
        1.3982113259537887
      ],
      [
        -0.1661915631255576,
        -0.8196278063865671,
        1.7731326475352025,
        -0.1567863190147361,
        -2.08482174338067,
        1.0888614299765547,
        0.308314501020063
      ],
      [
        0.2694372612511224,
        0.9461860132112758,
        -1.5208511584583089,
        0.04968522084879278,
        1.2972179883413608,
        -1.2065320811164744,
        0.25175076229597926
      ]
    ],
    "bias": [
      0.002013452943249274,
      0.018971144888233645,
      -0.009713720657586291,
      -0.02490746174815521,
      0.019538061275310617,
      -0.0038076665418559914,
      0.01028783118054579,
      -0.011384761294823792,
      0.0004949562546595492,
      0.0033228217436024935
    ],
    "measurements_mean": [
      275.2660705373898,
      98.55282635904815,
      107.37692448405164,
      14.15220596038644,
      77.94220603124575,
      160.09994899024983,
      177.51997252501312
    ],
    "measurements_std": [
      42.00676392187408,
      12.615293363332945,
      12.487073832627239,
      3.7463756379140984,
      6.570515436783712,
      13.009613053362775,
      12.981385174093239
    ]
  },
  "female": {
    "weights": [
      [
        -0.20435881068789444,
        -0.43207690893871165,
        0.43072239158019815,
        0.28803367046000383,
        -0.7753338254935738,
        1.84575475205044,
        -0.9963075502070133
      ],
      [
        0.016150090142190578,
        -0.8764356428411617,
        -0.27907365881251717,
        0.0320246665340102,
        -0.02749584817771345,
        -0.3385477654177488,
        0.9891038045763564
      ],
      [
        -0.18518981211599772,
        0.23199335956554673,
        0.571837658908038,
        0.2612581077053226,
        -0.6933317163449251,
        -1.5071882937556345,
        1.4769672414938044
      ],
      [
        -0.2822394969210022,
        1.3924650678693724,
        -2.0410194721777595,
        -0.18883901584711119,
        0.7415654088118319,
        -0.39560391924795196,
        0.38567535451866913
      ],
      [
        -0.5480447144710257,
        -0.8605930084917744,
        0.774854077436808,
        -0.04231989152280616,
        0.25336366477736005,
        1.3539337676838743,
        -1.1630514073543274
      ],
      [
        0.585827627111138,
        0.3597977918477314,
        0.1802211349632656,
        0.22380985904538497,
        -1.0415911330539467,
        -0.950486136202031,
        1.0973256249227406
      ],
      [
        1.1191126092441375,
        1.6699708594394311,
        -2.3013023361870286,
        -0.13863772504456667,
        1.613265619190433,
        -2.226817215128874,
        0.592649009192759
      ],
      [
        -0.11771033061735464,
        0.5226726431717548,
        0.5864839473166911,
        -0.05444897632738539,
        -2.0637108549351457,
        -0.21975887282086887,
        1.3982113259537887
      ],
      [
        -0.1661915631255576,
        -0.8196278063865671,
        1.7731326475352025,
        -0.1567863190147361,
        -2.08482174338067,
        1.0888614299765547,
        0.308314501020063
      ],
      [
        0.2694372612511224,
        0.9461860132112758,
        -1.5208511584583089,
        0.04968522084879278,
        1.2972179883413608,
        -1.2065320811164744,
        0.25175076229597926
      ]
    ],
    "bias": [
      0.002013452943249274,
      0.018971144888233645,
      -0.009713720657586291,
      -0.02490746174815521,
      0.019538061275310617,
      -0.0038076665418559914,
      0.01028783118054579,
      -0.011384761294823792,
      0.0004949562546595492,
      0.0033228217436024935
    ],
    "measurements_mean": [
      275.2660705373898,
      98.55282635904815,
      107.37692448405164,
      14.15220596038644,
      77.94220603124575,
      160.09994899024983,
      177.51997252501312
    ],
    "measurements_std": [
      42.00676392187408,
      12.615293363332945,
      12.487073832627239,
      3.7463756379140984,
      6.570515436783712,
      13.009613053362775,
      12.981385174093239
    ]
  },
  "measurement_order": [
    "chest",
    "waist",
    "hip",
    "shoulder",
    "thigh",
    "bicep",
    "height"
  ],
  "num_betas": 10
}