{
  "male": {
    "weights": [
      [
        -0.19800462771336894,
        0.024719077617069093,
        0.22378015683408298,
        0.5579432565749255,
        -0.13269150631366544,
        -0.04509588907255793,
        0.7676868375018482
      ],
      [
        -1.0062427625952122,
        0.3168729193943654,
        -0.8154591892114168,
        -0.4539932354223878,
        0.3129733715476886,
        0.106111051087348,
        1.08439114687658
      ],
      [
        1.9479477447495368,
        0.0286446143182311,
        -2.8748325562000483,
        -3.326369077234616,
        2.1317029965024736,
        0.3606398786201364,
        2.374180640682126
      ],
      [
        1.2092987232625159,
        0.02807186847945658,
        -3.3906844841840353,
        -0.17859175375680814,
        2.3551752548327696,
        -0.33314528943631433,
        -0.14948848374500878
      ],
      [
        -2.7717876996790025,
        1.8668058859710734,
        0.4428286126851503,
        2.687091328219171,
        -0.27636094224660773,
        -0.1161338464149325,
        -1.457764598311915
      ],
      [
        -2.1943079508949728,
        0.6778723729014229,
        0.8778217536752426,
        2.40390992382543,
        -2.086716579044328,
        1.483149061251479,
        -0.5431346279739685
      ],
      [
        3.0480350024924547,
        1.153728694739534,
        -9.454085428080685,
        -3.3023893128924953,
        6.868281010261304,
        0.06712071881313923,
        2.00948046552083
      ],
      [
        1.394405057853973,
        0.4284425929600999,
        1.1039259851448833,
        -0.5364620426405771,
        -2.4596144972198504,
        -0.37808180191615126,
        0.1608891696662926
      ],
      [
        -0.00034444165033039676,
        0.6681595824030385,
        -4.338570588377502,
        -0.7560071928217275,
        2.024777521808511,
        1.8604392317113514,
        1.5454134675892233
      ],
      [
        -1.7453066117590232,
        -0.3517244436545274,
        -0.6950187946241527,
        1.5901144395303106,
        0.0006378673458976236,
        2.0491511625538736,
        0.08249122122187862
      ]
    ],
    "bias": [
      0.003196939892674385,
      -0.001966351491209487,
      -0.010060262848745068,
      -0.009285356240140057,
      0.015604956081060568,
      0.0032863973586789515,
      0.015150379577901347,
      0.0016737214609426258,
      0.0011087789186127216,
      -0.006301440878506075
    ],
    "measurements_mean": [
      97.33587332584963,
      92.96293977016664,
      103.10880402081413,
      47.38093303619142,
      57.00179115582098,
      21.314656346370572,
      171.88520847783795
    ],
    "measurements_std": [
      11.18853030095711,
      12.702201908287805,
      10.15139852635222,
      4.798690799476302,
      6.118978405418402,
      4.640588318188768,
      12.105391303874928
    ],
    "defaults": [
      96,
      84,
      95,
      45,
      55,
      33,
      175
    ]
  },
  "female": {
    "weights": [
      [
        -0.19800462771336894,
        0.024719077617069093,
        0.22378015683408298,
        0.5579432565749255,
        -0.13269150631366544,
        -0.04509588907255793,
        0.7676868375018482
      ],
      [
        -1.0062427625952122,
        0.3168729193943654,
        -0.8154591892114168,
        -0.4539932354223878,
        0.3129733715476886,
        0.106111051087348,
        1.08439114687658
      ],
      [
        1.9479477447495368,
        0.0286446143182311,
        -2.8748325562000483,
        -3.326369077234616,
        2.1317029965024736,
        0.3606398786201364,
        2.374180640682126
      ],
      [
        1.2092987232625159,
        0.02807186847945658,
        -3.3906844841840353,
        -0.17859175375680814,
        2.3551752548327696,
        -0.33314528943631433,
        -0.14948848374500878
      ],
      [
        -2.7717876996790025,
        1.8668058859710734,
        0.4428286126851503,
        2.687091328219171,
        -0.27636094224660773,
        -0.1161338464149325,
        -1.457764598311915
      ],
      [
        -2.1943079508949728,
        0.6778723729014229,
        0.8778217536752426,
        2.40390992382543,
        -2.086716579044328,
        1.483149061251479,
        -0.5431346279739685
      ],
      [
        3.0480350024924547,
        1.153728694739534,
        -9.454085428080685,
        -3.3023893128924953,
        6.868281010261304,
        0.06712071881313923,
        2.00948046552083
      ],
      [
        1.394405057853973,
        0.4284425929600999,
        1.1039259851448833,
        -0.5364620426405771,
        -2.4596144972198504,
        -0.37808180191615126,
        0.1608891696662926
      ],
      [
        -0.00034444165033039676,
        0.6681595824030385,
        -4.338570588377502,
        -0.7560071928217275,
        2.024777521808511,
        1.8604392317113514,
        1.5454134675892233
      ],
      [
        -1.7453066117590232,
        -0.3517244436545274,
        -0.6950187946241527,
        1.5901144395303106,
        0.0006378673458976236,
        2.0491511625538736,
        0.08249122122187862
      ]
    ],
    "bias": [
      0.003196939892674385,
      -0.001966351491209487,
      -0.010060262848745068,
      -0.009285356240140057,
      0.015604956081060568,
      0.0032863973586789515,
      0.015150379577901347,
      0.0016737214609426258,
      0.0011087789186127216,
      -0.006301440878506075
    ],
    "measurements_mean": [
      97.33587332584963,
      92.96293977016664,
      103.10880402081413,
      47.38093303619142,
      57.00179115582098,
      21.314656346370572,
      171.88520847783795
    ],
    "measurements_std": [
      11.18853030095711,
      12.702201908287805,
      10.15139852635222,
      4.798690799476302,
      6.118978405418402,
      4.640588318188768,
      12.105391303874928
    ],
    "defaults": [
      89,
      72,
      97,
      39,
      54,
      27,
      163
    ]
  },
  "measurement_order": [
    "chest",
    "waist",
    "hip",
    "shoulder",
    "thigh",
    "bicep",
    "height"
  ],
  "slider_ranges": {
    "chest": [
      60,
      140,
      1
    ],
    "waist": [
      55,
      140,
      1
    ],
    "hips": [
      60,
      140,
      1
    ],
    "shoulder": [
      30,
      60,
      1
    ],
    "thigh": [
      35,
      80,
      1
    ],
    "bicep": [
      18,
      50,
      1
    ],
    "height": [
      140,
      210,
      1
    ]
  },
  "num_betas": 10,
  "r2_score": 0.560943703621217
}