{
  "model_type": "ridge",
  "version": 7,
  "gender_split": true,
  "breast_betas": [
    1,
    2,
    5
  ],
  "breast_clamp_male": 0.3,
  "measurement_order": [
    "chest",
    "waist",
    "hip",
    "shoulder",
    "thigh",
    "bicep",
    "neck"
  ],
  "slider_ranges": {
    "chest": [
      60,
      140,
      1
    ],
    "waist": [
      55,
      140,
      1
    ],
    "hip": [
      60,
      140,
      1
    ],
    "shoulder": [
      30,
      60,
      1
    ],
    "thigh": [
      35,
      80,
      1
    ],
    "bicep": [
      18,
      50,
      1
    ],
    "neck": [
      28,
      50,
      1
    ]
  },
  "num_betas": 10,
  "male": {
    "weights": [
      [
        -0.32929072458497904,
        0.07411595264824049,
        0.9472696048342091,
        1.0270987156104954,
        -0.6171948324933605,
        -0.15706023925720908,
        0.25010779750754264
      ],
      [
        -0.3042482988185852,
        0.21789094205295412,
        0.0011193523348403207,
        0.4831047159161782,
        -0.05048378288194147,
        -0.20318249408832093,
        -0.34563648831197946
      ],
      [
        -0.2608932686604638,
        0.012348638352757011,
        0.2856310092361346,
        -0.22944310296215836,
        -0.2282186067953825,
        0.11104269702997929,
        0.48598615604646617
      ],
      [
        -0.1970675628990468,
        0.19028401880041954,
        -2.5393964614650604,
        0.8673775937462939,
        1.498057484334882,
        -0.01047527456626479,
        -0.1526212988705993
      ],
      [
        0.7697778572336775,
        1.3452344856007554,
        -3.3266950420572075,
        1.7432836145523658,
        2.6339758549217405,
        -0.47430720922552916,
        -2.722590082457712
      ],
      [
        -0.28294052910004597,
        0.044040377760559246,
        0.09013318468022526,
        0.19098369883944938,
        -0.20319584185989809,
        0.16523061311746975,
        0.1743109555928717
      ],
      [
        1.4623121595575033,
        0.7256358533658691,
        -4.24882004105407,
        -3.0166700774511397,
        3.683028754328435,
        -0.058364384040437894,
        1.7900637693190662
      ],
      [
        1.1757484838599934,
        0.3746553393838149,
        0.20684224884324123,
        0.16377007558360396,
        -1.6188892959674515,
        -0.00879937547212642,
        -0.6132458957109326
      ],
      [
        1.2289152348187906,
        0.7099760995219238,
        -3.3238061719100385,
        2.6623527930030555,
        1.8242552927902764,
        0.12930249708147298,
        -3.445452172184312
      ],
      [
        1.2515013359949771,
        -0.756950911378858,
        -2.315903128370364,
        3.5572651285601844,
        1.3707989715776314,
        0.9245675625165788,
        -3.7453100985167054
      ]
    ],
    "bias": [
      0.008952212065188609,
      -0.003591774888555752,
      -0.00275759828237797,
      -0.017615188640035334,
      9.38932239770819e-05,
      0.0017994170395482035,
      0.03356014496051044,
      -0.007232803458660884,
      0.005189815994031182,
      -0.0012386218978212816
    ],
    "measurements_mean": [
      97.37494768761738,
      93.34500480320703,
      103.06261232638126,
      47.39658775864739,
      57.020115057026175,
      21.126386621898565,
      36.598395121816104
    ],
    "measurements_std": [
      6.696973183163601,
      7.974852890013038,
      6.859009175049221,
      4.522623375941436,
      4.377165269466655,
      2.709786721991827,
      3.739823459673175
    ],
    "train_r2": 0.5290485132954651,
    "defaults": [
      96,
      84,
      95,
      45,
      55,
      33,
      38
    ]
  },
  "female": {
    "weights": [
      [
        -1.0235791442479856,
        0.15954507369025453,
        1.7374059590793096,
        1.3156994603895575,
        -1.141807520730407,
        -0.30607597525198615,
        0.2940779438292877
      ],
      [
        -1.8925295620279208,
        0.5180310082865174,
        1.1208427107386172,
        0.726033096545777,
        -0.9445709870127809,
        -0.38415001701738166,
        0.09807579133507298
      ],
      [
        -2.9013010449850407,
        0.31118786002592447,
        3.4540552472584616,
        -1.6178886810354884,
        -2.411985044861429,
        0.6148211052101693,
        3.2060060137770114
      ],
      [
        -0.15566031395771426,
        -0.09218705019257246,
        -2.5524777646056114,
        -0.7794260449544017,
        1.6010749461891767,
        0.40748112789379715,
        1.5031428378018898
      ],
      [
        0.2922212610027171,
        1.6912210977227242,
        -3.5295918267591357,
        1.7260407543766019,
        2.581914400410423,
        -0.30843131894041065,
        -2.121660043120766
      ],
      [
        -2.4985941731122465,
        0.5786424634351094,
        0.3553038211791499,
        1.5822796657755176,
        -1.8821992011103577,
        2.0505165831891325,
        0.7294833617648772
      ],
      [
        0.1777512370475786,
        1.477805487572783,
        -4.920402668420912,
        -1.544187047493567,
        3.7077168781386134,
        -0.30484219273895746,
        1.5150092278312088
      ],
      [
        1.896783782288766,
        0.4813031092106656,
        0.9306151650987124,
        -0.1444672552889206,
        -2.237975650197431,
        -0.7255867210757462,
        -0.6601082800027023
      ],
      [
        1.2568259849849204,
        1.0589020988918447,
        -3.365906682454994,
        1.8439732414649743,
        1.747007177028013,
        0.08801936989457586,
        -2.597735295880501
      ],
      [
        0.5373566373802204,
        -0.2511080128263546,
        -2.259247254571211,
        2.599811946178519,
        1.3319489363031483,
        1.0229270400259258,
        -2.6095215808591132
      ]
    ],
    "bias": [
      -0.002558332280017013,
      -0.0047313099435624855,
      -0.0034960308144326145,
      -0.0009555238400373372,
      0.03111601893799444,
      0.013730530943368752,
      -0.0032593858039881934,
      0.01058024638069355,
      -0.002972258156350869,
      -0.011364259859131367
    ],
    "measurements_mean": [
      97.33351733475077,
      93.00828509388396,
      103.10154001833415,
      47.36722820144654,
      56.98182554411723,
      21.31832812018928,
      36.490078666660445
    ],
    "measurements_std": [
      11.23323612004289,
      12.707971132129957,
      10.120378098967869,
      4.81324566564407,
      6.087860448755977,
      4.617572487823325,
      4.237443957838799
    ],
    "train_r2": 0.5356060536584427,
    "defaults": [
      89,
      72,
      97,
      39,
      54,
      27,
      34
    ]
  }
}