{
  "model_type": "ridge",
  "measurement_order": [
    "chest",
    "waist",
    "hip",
    "shoulder",
    "thigh",
    "bicep",
    "neck"
  ],
  "slider_ranges": {
    "chest": [
      60,
      140,
      1
    ],
    "waist": [
      55,
      140,
      1
    ],
    "hip": [
      60,
      140,
      1
    ],
    "shoulder": [
      30,
      60,
      1
    ],
    "thigh": [
      35,
      80,
      1
    ],
    "bicep": [
      18,
      50,
      1
    ],
    "neck": [
      28,
      50,
      1
    ]
  },
  "num_betas": 10,
  "train_r2": 0.5375153211753704,
  "male": {
    "weights": [
      [
        -1.0622689774833944,
        0.11874596411026714,
        1.8392995336243199,
        1.3212511022747746,
        -1.220272721672702,
        -0.27273070812805367,
        0.31907261962146954
      ],
      [
        -1.9207363565884634,
        0.453623619626559,
        1.2724685832167195,
        0.7217351632586152,
        -1.052322548986017,
        -0.3473818564715401,
        0.13646464670655808
      ],
      [
        -2.7029342096990048,
        0.27893314875845376,
        3.5416173972908194,
        -1.7602424792858709,
        -2.422170925298314,
        0.46329509384071305,
        3.222190944919078
      ],
      [
        -0.033648383282684935,
        -0.025648357924545135,
        -2.7020279696410605,
        -0.8771238017594386,
        1.7073504959468249,
        0.3003884842832006,
        1.5097615681200403
      ],
      [
        0.3380433177778745,
        1.7127355316464397,
        -3.615509113929183,
        1.7525685012024497,
        2.632449721294892,
        -0.2912005033420911,
        -2.1866726612248466
      ],
      [
        -2.211851147324032,
        0.5674112743242835,
        0.23922632399152954,
        1.6009424768456895,
        -1.703022599385553,
        1.9127340077097608,
        0.48519123200672515
      ],
      [
        0.09844756861267395,
        1.3201378297265023,
        -4.639851898520615,
        -1.4968893210391925,
        3.569292465061469,
        -0.21839220480225446,
        1.5225915513385877
      ],
      [
        1.828345208046701,
        0.4821322366334785,
        0.9830238001211401,
        -0.15682542094087087,
        -2.3177682256102923,
        -0.6916863578570155,
        -0.599400386092622
      ],
      [
        1.380398212874601,
        0.9278183042374166,
        -3.1977058843764237,
        1.8101368860358087,
        1.6563700520361024,
        0.02704990049674795,
        -2.650566609976168
      ],
      [
        0.7566684991015311,
        -0.2534594970123528,
        -2.2859502844673396,
        2.4491225526164064,
        1.4206092178538712,
        0.8603450347651138,
        -2.6301659914897937
      ]
    ],
    "bias": [
      0.008952212065223094,
      0.0007986069611050176,
      -0.01662449488287721,
      -0.0176151886400743,
      9.38932239563149e-05,
      -0.007157736226410202,
      0.033560144960538725,
      -0.007232803458672372,
      0.005189815993958893,
      -0.0012386218979347195
    ],
    "measurements_mean": [
      97.3382293169491,
      92.91759444644937,
      103.11606802329345,
      47.39463787093586,
      57.021756767524636,
      21.31098457255179,
      36.52074244980422
    ],
    "measurements_std": [
      11.143644635434406,
      12.696268110984667,
      10.182319268424044,
      4.784052392598243,
      6.149874092786348,
      4.663487668437791,
      4.214704231641086
    ],
    "defaults": [
      96,
      84,
      95,
      45,
      55,
      33,
      38
    ]
  },
  "female": {
    "weights": [
      [
        -1.0622689774833944,
        0.11874596411026714,
        1.8392995336243199,
        1.3212511022747746,
        -1.220272721672702,
        -0.27273070812805367,
        0.31907261962146954
      ],
      [
        -1.9207363565884634,
        0.453623619626559,
        1.2724685832167195,
        0.7217351632586152,
        -1.052322548986017,
        -0.3473818564715401,
        0.13646464670655808
      ],
      [
        -2.7029342096990048,
        0.27893314875845376,
        3.5416173972908194,
        -1.7602424792858709,
        -2.422170925298314,
        0.46329509384071305,
        3.222190944919078
      ],
      [
        -0.033648383282684935,
        -0.025648357924545135,
        -2.7020279696410605,
        -0.8771238017594386,
        1.7073504959468249,
        0.3003884842832006,
        1.5097615681200403
      ],
      [
        0.3380433177778745,
        1.7127355316464397,
        -3.615509113929183,
        1.7525685012024497,
        2.632449721294892,
        -0.2912005033420911,
        -2.1866726612248466
      ],
      [
        -2.211851147324032,
        0.5674112743242835,
        0.23922632399152954,
        1.6009424768456895,
        -1.703022599385553,
        1.9127340077097608,
        0.48519123200672515
      ],
      [
        0.09844756861267395,
        1.3201378297265023,
        -4.639851898520615,
        -1.4968893210391925,
        3.569292465061469,
        -0.21839220480225446,
        1.5225915513385877
      ],
      [
        1.828345208046701,
        0.4821322366334785,
        0.9830238001211401,
        -0.15682542094087087,
        -2.3177682256102923,
        -0.6916863578570155,
        -0.599400386092622
      ],
      [
        1.380398212874601,
        0.9278183042374166,
        -3.1977058843764237,
        1.8101368860358087,
        1.6563700520361024,
        0.02704990049674795,
        -2.650566609976168
      ],
      [
        0.7566684991015311,
        -0.2534594970123528,
        -2.2859502844673396,
        2.4491225526164064,
        1.4206092178538712,
        0.8603450347651138,
        -2.6301659914897937
      ]
    ],
    "bias": [
      0.008952212065223094,
      0.0007986069611050176,
      -0.01662449488287721,
      -0.0176151886400743,
      9.38932239563149e-05,
      -0.007157736226410202,
      0.033560144960538725,
      -0.007232803458672372,
      0.005189815993958893,
      -0.0012386218979347195
    ],
    "measurements_mean": [
      97.3382293169491,
      92.91759444644937,
      103.11606802329345,
      47.39463787093586,
      57.021756767524636,
      21.31098457255179,
      36.52074244980422
    ],
    "measurements_std": [
      11.143644635434406,
      12.696268110984667,
      10.182319268424044,
      4.784052392598243,
      6.149874092786348,
      4.663487668437791,
      4.214704231641086
    ],
    "defaults": [
      89,
      72,
      97,
      39,
      54,
      27,
      34
    ]
  }
}